tree
num_class=1
num_tree_per_iteration=1
label_index=0
max_feature_idx=29
objective=regression
boost_from_average
feature_names=age TSH_LOG_ TT4 T4U FTI sexM sex(Missing) on_thyroxinet query_on_thyroxinet on_antithyroid_medicationt sickt pregnantt thyroid_surgeryt I131_treatmentt query_hypothyroidt query_hyperthyroidt lithiumt goitret tumort hypopituitaryt psycht referral_source_OTHER_STMW referral_source_OTHER_SVHC referral_source_OTHER_SVI referral_source_OTHER__OTHER_ MISS_ageno_miss MISS_TSHno_miss MISS_T3no_miss MISS_TT4no_miss MISS_T4Uno_miss
feature_infos=[21:87] [-5.2983173665480363:4.5175404360271134] [33:203] [0.60999999999999999:1.49] [49:217.28999999999996] [0:1] none [0:1] none none none none none none none [0:1] none none none none [0:1] none [0:1] [0:1] none none [0:1] [0:1] [0:1] [0:1]

Tree=0
num_leaves=2
split_feature=0
split_gain=2.2250738585072014e-308
threshold=0
decision_type=0
default_value=2.2250738585072014e-308
left_child=-1
right_child=-2
leaf_parent=0 0
leaf_value=0.11 0.11
leaf_count=0 100
internal_value=0
internal_count=100
shrinkage=1
has_categorical=0


Tree=1
num_leaves=4
split_feature=23 0 0
split_gain=2.1511110470030053 0.96031743169776962 0.99436087262137551
threshold=9.9999996826552254e-021 48.5 64.5
decision_type=0 0 0
default_value=2.2250738585072014e-308 2.2250738585072014e-308 1.7976931348623157e+308
left_child=-1 -2 -3
right_child=1 2 -4
leaf_parent=0 1 2 2
leaf_value=-0.010999999940395355 -0.010999999940395355 0.055666665732860568 0.015315789141153033
leaf_count=64 8 9 19
internal_value=0 0.19555555159846941 0.2828571375991617
internal_count=100 36 28
shrinkage=0.1
has_categorical=0


Tree=2
num_leaves=8
split_feature=3 5 0 0 3 0 0
split_gain=0.8282571852237457 0.5674993654949182 0.5021792769857607 0.13422783850472014 0.20139153727265577 0.10247122510063278 5.5511151231257827e-017
threshold=0.86499999999999999 9.9999996826552254e-021 62.5 54.5 1.0550000000000002 60.5 48.5
decision_type=0 0 0 0 0 0 0
default_value=2.2250738585072014e-308 2.2250738585072014e-308 2.2250738585072014e-308 2.2250738585072014e-308 2.2250738585072014e-308 2.2250738585072014e-308 2.2250738585072014e-308
left_child=1 2 -1 6 -5 -3 -2
right_child=3 5 -4 4 -6 -7 -8
leaf_parent=2 6 5 2 4 4 5 6
leaf_value=0.0056555560479561477 -0.0098999999463558197 0.0074333338439464564 0.043004484226306282 -0.007008771777153016 0.0073587724007666113 -0.012812280505895612 -0.0098999999463558197
leaf_count=6 29 5 9 25 16 5 5
internal_value=0 0.15763158440589906 0.28064912954966226 -0.052543857892354329 -0.014019252686965756 -0.026894733309745785 -0.098999999463558197
internal_count=100 25 15 75 41 10 34
shrinkage=0.1
has_categorical=0


Tree=3
num_leaves=6
split_feature=23 0 0 3 0
split_gain=1.6460793306901844 0.72898975578820635 0.78060480045093139 0.0038701470349281619 0.00097128021426340361
threshold=9.9999996826552254e-021 48.5 64.5 0.86499999999999999 54.5
decision_type=0 0 0 0 0
default_value=2.2250738585072014e-308 2.2250738585072014e-308 1.7976931348623157e+308 2.2250738585072014e-308 2.2250738585072014e-308
left_child=3 -2 -3 -1 -5
right_child=1 2 -4 4 -6
leaf_parent=3 1 2 2 4 4
leaf_value=-0.01154482803410954 -0.0095155557617545138 0.048973026043838928 0.013221336587479239 -0.0089100003242492676 -0.0097517208984264966
leaf_count=9 8 9 19 29 26
internal_value=0 0.17106616207294995 0.24712951055594853 -0.096224719542078674 -0.093079045956785025
internal_count=100 36 28 64 55
shrinkage=0.1
has_categorical=0


Tree=4
num_leaves=6
split_feature=23 0 0 3 0
split_gain=1.3333242614580381 0.59048169627193103 0.63228989466682717 0.0031348180806532455 0.00078673669975953819
threshold=9.9999996826552254e-021 48.5 64.5 0.86499999999999999 54.5
decision_type=0 0 0 0 0
default_value=2.2250738585072014e-308 2.2250738585072014e-308 1.7976931348623157e+308 2.2250738585072014e-308 2.2250738585072014e-308
left_child=3 -2 -3 -1 -5
right_child=1 2 -4 4 -6
leaf_parent=3 1 2 2 4 4
leaf_value=-0.010390344841612711 -0.008563999924808741 0.044075723654694032 0.011899202983630329 -0.0080190002918243408 -0.0087765486767658815
leaf_count=9 8 9 19 29 26
internal_value=0 0.15395954727298683 0.22241656056472234 -0.086602246505208313 -0.083771140737967056
internal_count=100 36 28 64 55
shrinkage=0.1
has_categorical=0


Tree=5
num_leaves=8
split_feature=3 5 1 1 1 1 3
split_gain=0.50077345845324295 0.50365344100301868 0.29810130185513661 0.098828764315034456 0.16179692447279026 0.076620422823998516 0.045517444543117208
threshold=0.86499999999999999 9.9999996826552254e-021 -0.28123492845916453 -0.077976150886943194 -1.2951335827229133 0.91549009119066804 1.1150000000000002
decision_type=0 0 0 0 0 0 0
default_value=2.2250738585072014e-308 2.2250738585072014e-308 1.7976931348623157e+308 2.2250738585072014e-308 2.2250738585072014e-308 2.2250738585072014e-308 2.2250738585072014e-308
left_child=1 2 -1 4 -2 -3 -5
right_child=3 5 -4 6 -6 -7 -8
leaf_parent=2 4 5 2 6 4 5 6
leaf_value=0.038916693202086856 -0.0088326271962035751 -0.013880063593387601 0.010659205168485642 -0.0090181078994646668 0.0067321655943113224 0.0036265549063682549 -0.0023420937856038415
leaf_count=7 11 5 8 32 17 5 15
internal_value=0 0.12256918013095856 0.23846032917499541 -0.040856392482916511 0.006174255694661822 -0.051267543435096728 -0.068874650971686588
internal_count=100 25 15 75 28 10 47
shrinkage=0.1
has_categorical=0


Tree=6
num_leaves=8
split_feature=23 1 5 1 0 2 2
split_gain=1.0281124961203092 0.49149314104474473 0.52898735153415499 0.36094638608742463 0.0038972832649602496 0.0038558783909308503 0.00022554198357951916
threshold=9.9999996826552254e-021 9.9999996826552254e-021 9.9999996826552254e-021 1.0471650770867931 57.5 88.5 82.5
decision_type=0 0 0 0 0 0 0
default_value=2.2250738585072014e-308 2.2250738585072014e-308 2.2250738585072014e-308 2.2250738585072014e-308 2.2250738585072014e-308 1.7976931348623157e+308 2.2250738585072014e-308
left_child=4 2 -2 -3 6 -6 -1
right_child=1 3 -4 -5 5 -7 -8
leaf_parent=6 2 3 2 3 5 5 6
leaf_value=-0.0063152894377708439 0.047420459347111851 -0.013068076688796277 0.0097783233039081072 0.013928849966480181 -0.010315481387078763 -0.0077517887408083122 -0.0069909032434225084
leaf_count=6 7 8 8 13 8 22 28
internal_value=0 0.13519451053192219 0.27344653457403184 0.036443064787558148 -0.07604691106826067 -0.084354401131470996 -0.068716772777192736
internal_count=100 36 15 21 64 30 34
shrinkage=0.1
has_categorical=0


Tree=7
num_leaves=7
split_feature=23 0 0 0 2 29
split_gain=0.83277112284332344 0.41888011195459096 0.46446726271242955 0.0031568009381958695 0.0031232614324746 0.0002394801730135343
threshold=9.9999996826552254e-021 48.5 64.5 57.5 88.5 9.9999996826552254e-021
decision_type=0 0 0 0 0 0
default_value=2.2250738585072014e-308 2.2250738585072014e-308 1.7976931348623157e+308 2.2250738585072014e-308 2.2250738585072014e-308 2.2250738585072014e-308
left_child=3 -2 -3 5 -5 -1
right_child=1 2 -4 4 -6 -7
leaf_parent=5 1 2 2 4 4 5
leaf_value=-0.0067578316355745007 -0.0080127952620387081 0.036646765801641681 0.0090690358296820969 -0.0092839335091412026 -0.0069766101512041961 -0.0060616547507899151
leaf_count=6 8 9 19 8 22 28
internal_value=0 0.12167505857845147 0.17933306177811964 -0.068442220974247903 -0.075918963799873992 -0.061845094951636648
internal_count=100 36 28 64 30 34
shrinkage=0.1
has_categorical=0


Tree=8
num_leaves=6
split_feature=3 2 0 3 3
split_gain=0.33053757679313672 0.64874348306129925 0.15609748450858954 0.26429703709537544 0.052336639578743904
threshold=0.80000000000000004 93 62.5 0.88500000000000001 0.86499999999999999
decision_type=0 0 0 0 0
default_value=2.2250738585072014e-308 2.2250738585072014e-308 2.2250738585072014e-308 2.2250738585072014e-308 2.2250738585072014e-308
left_child=1 -1 4 -4 -2
right_child=2 -3 3 -5 -6
leaf_parent=1 4 1 3 3 4
leaf_value=0.038522613669435192 -0.014481222877899805 -0.010249572098255156 0.018925748649053276 -0.0014612179009183763 -0.0045251983979886232
leaf_count=6 6 5 8 31 44
internal_value=0 0.16353438320485028 -0.020212116012914796 0.027207239554860652 -0.057199213355779648
internal_count=100 11 89 39 50
shrinkage=0.1
has_categorical=0


Tree=9
num_leaves=6
split_feature=23 4 1 3 3
split_gain=0.62973150030167546 0.37531079013379964 0.67779454245932591 0.015790850774180409 0.0012613184247966813
threshold=9.9999996826552254e-021 151.5 -0.077976150886943194 0.86499999999999999 1.0550000000000002
decision_type=0 0 0 0 0
default_value=2.2250738585072014e-308 2.2250738585072014e-308 1.7976931348623157e+308 2.2250738585072014e-308 2.2250738585072014e-308
left_child=3 2 -2 -1 -5
right_child=1 -3 -4 4 -6
leaf_parent=3 2 1 2 4 4
leaf_value=-0.0098347208152214701 0.033287417143583298 -0.014843030124902727 0.0029301650430026802 -0.0049542609708649772 -0.005949768833816052
leaf_count=9 12 5 19 35 20
internal_value=0 0.10580749747653802 0.14681359404517758 -0.059516718436498195 -0.053162638301199133
internal_count=100 36 31 64 55
shrinkage=0.1
has_categorical=0


Tree=10
num_leaves=6
split_feature=23 4 1 3 3
split_gain=0.51008253507029599 0.30400173790762752 0.5490136047912435 0.012790589237392014 0.0010216680818675161
threshold=9.9999996826552254e-021 151.5 -0.077976150886943194 0.86499999999999999 1.0550000000000002
decision_type=0 0 0 0 0
default_value=2.2250738585072014e-308 1.7976931348623157e+308 1.7976931348623157e+308 2.2250738585072014e-308 2.2250738585072014e-308
left_child=3 2 -2 -1 -5
right_child=1 -3 -4 4 -6
leaf_parent=3 2 1 2 4 4
leaf_value=-0.008851248729560111 0.029958676112194854 -0.013358726724982263 0.0026371485896800693 -0.0044588348269462589 -0.0053547919727861886
leaf_count=9 12 5 19 35 20
internal_value=0 0.095226750812596739 0.13213223759685794 -0.053565046400763094 -0.047846374254335057
internal_count=100 36 31 64 55
shrinkage=0.1
has_categorical=0



feature importances:
age=18
T4U=13
TSH_LOG_=8
referral_source_OTHER_SVI=7
TT4=4
sexM=3
FTI=2
MISS_T4Uno_miss=1
